Language model created by QuickLM on Sat May 26 11:37:02 EDT 2018
Copyright (c) 1996-2010 Carnegie Mellon University and Alexander I. Rudnicky

The model is in standard ARPA format, designed by Doug Paul while he was at MITRE.

The code that was used to produce this language model is available in Open Source.
Please visit http://www.speech.cs.cmu.edu/tools/ for more information

The (fixed) discount mass is 0.5. The backoffs are computed using the ratio method.
This model based on a corpus of 15 sentences and 369 words

\data\
ngram 1=369
ngram 2=641
ngram 3=658

\1-grams:
-3.1411 - -0.3007
-3.1411 23RD -0.2918
-1.9650 </s> -0.3010
-1.9650 <s> -0.2765
-1.7262 A -0.2896
-3.1411 ABOUT -0.3007
-2.6640 AGAIN -0.2905
-3.1411 ALIVE. -0.2991
-2.6640 ALL -0.2995
-3.1411 ALL. -0.2963
-3.1411 ALONG -0.2883
-2.8401 ALSO -0.2837
-3.1411 ALTOGETHER. -0.2966
-2.8401 AN -0.3004
-1.9370 AND -0.2931
-3.1411 ANOTHER -0.3007
-3.1411 APRIL -0.2988
-2.6640 ARE -0.2915
-3.1411 AROUND -0.2883
-2.6640 AS -0.2854
-3.1411 AT -0.3007
-3.1411 ATROCITIES. -0.2985
-3.1411 AUNTS, -0.3007
-3.1411 BACON, -0.2928
-3.1411 BARBARIC -0.3007
-2.6640 BE -0.2925
-3.1411 BEASTS -0.3007
-3.1411 BEAT -0.2918
-3.1411 BED -0.3007
-3.1411 BEDROOM -0.3007
-3.1411 BEHIND -0.2883
-3.1411 BLADE -0.2918
-2.8401 BLOOD -0.3004
-3.1411 BLUE -0.3007
-3.1411 BLUE. -0.2883
-3.1411 BONE-CRUNCHING, -0.3007
-3.1411 BONES -0.2918
-3.1411 BORN. -0.3004
-2.8401 BREAK -0.2998
-3.1411 BREATH -0.3007
-3.1411 BREATHING -0.3007
-3.1411 BRIDGE -0.3007
-3.1411 BUNYIPS. -0.3007
-2.6640 BUT -0.2979
-3.1411 BUTCHER. -0.3007
-3.1411 BY -0.3001
-3.1411 CAN -0.3004
-3.1411 CASTING, -0.3004
-3.1411 CEILING. -0.3007
-3.1411 CELEBRATING -0.3007
-2.8401 CELEBRATION -0.2893
-3.1411 CHANGE -0.3001
-3.1411 CHAT. -0.3001
-3.1411 CHECK -0.3004
-3.1411 CHICKEN -0.3007
-3.1411 CHILD -0.2966
-3.1411 CHILDREN'S -0.3001
-3.1411 CHILL -0.2883
-3.1411 CHIN. -0.2998
-3.1411 CITY. -0.3001
-3.1411 COLD -0.3007
-2.8401 COURSE -0.2998
-3.1411 CRACKING -0.3004
-2.6640 CREATURES -0.2880
-3.1411 CREATURES, -0.3007
-3.1411 CURL -0.3007
-3.1411 CURTAINS -0.3007
-3.1411 CYCLOPS. -0.3007
-2.6640 DAY -0.2896
-3.1411 DAY. -0.2883
-3.1411 DEPTH -0.3007
-3.1411 DETAIL. -0.3007
-3.1411 DICED -0.2960
-2.5391 DID -0.2748
-3.1411 DIE, -0.2998
-2.8401 DIFFERENT -0.2963
-3.1411 DIM -0.2883
-3.1411 DISCOVERED? -0.3001
-3.1411 DISPATCHED -0.3007
-3.1411 DO -0.2988
-3.1411 DOESN’T -0.3004
-3.1411 DON’T -0.3007
-3.1411 DOZEN -0.3007
-2.8401 DRAGON -0.3001
-2.8401 DRAGONS -0.2998
-2.6640 DRAGONS. -0.2950
-2.4422 DUNDEE -0.2857
-3.1411 DUNDEE. -0.2883
-3.1411 DWELLING, -0.3004
-3.1411 EARLY -0.2960
-3.1411 EARTH -0.3007
-2.8401 EGG -0.2915
-3.1411 EGG. -0.2928
-3.1411 EGGS -0.3007
-3.1411 ELVES. -0.3007
-3.1411 ENTIRE -0.3007
-3.1411 EVENT -0.3007
-2.8401 EVERY -0.3004
-3.1411 EXCEPT. -0.2963
-3.1411 EXIST -0.2998
-3.1411 EXIST. -0.3004
-3.1411 EYES -0.2960
-2.8401 FACT -0.2972
-3.1411 FADED -0.3007
-3.1411 FAIRIES. -0.3007
-3.1411 FANTASTICAL -0.3007
-3.1411 FAST -0.3007
-3.1411 FAULT -0.2918
-3.1411 FEW -0.3007
-3.1411 FIND -0.2966
-2.6640 FIRE -0.2941
-3.1411 FIRE. -0.3007
-3.1411 FIRTH -0.3007
-3.1411 FIRTH. -0.2963
-3.1411 FLOWED -0.3007
-3.1411 FOR -0.2928
-3.1411 FOR. -0.2963
-3.1411 FOREST -0.3007
-3.1411 FORM. -0.2998
-2.8401 FOSSIL -0.2883
-2.8401 FOSSILISED -0.3001
-3.1411 FREE. -0.2883
-3.1411 FRIENDLY -0.2960
-2.6640 FROM -0.2915
-3.1411 FRONT -0.2918
-3.1411 GATES, -0.2998
-2.8401 GEORGE -0.2982
-3.1411 GEORGE. -0.2963
-2.8401 GEORGE’S -0.3004
-2.8401 GET -0.3001
-3.1411 GHOSTS. -0.3007
-3.1411 GIANT -0.3007
-3.1411 GIANTS. -0.3007
-3.1411 GLEAMING -0.3007
-3.1411 GO -0.3001
-3.1411 GOBLINS. -0.3001
-3.1411 GONE. -0.2883
-3.1411 GRANDADS -0.2998
-3.1411 GRANS, -0.3007
-3.1411 GREEN -0.3007
-3.1411 GRUMPING, -0.3007
-3.1411 HAD -0.2928
-3.1411 HAS -0.2966
-3.1411 HATCH…. -0.2963
-3.1411 HAVE -0.2918
-3.1411 HE -0.2995
-2.8401 HEAT -0.2925
-3.1411 HERE -0.2995
-3.1411 HEY -0.3007
-3.1411 HIGH -0.3007
-3.1411 HIS -0.3007
-3.1411 HOMES, -0.3007
-3.1411 HORROR. -0.2985
-3.1411 HOW -0.2998
-3.1411 HOWLING, -0.3007
-3.1411 HUGE -0.2960
-3.1411 HUSHED -0.3007
-3.1411 I -0.3004
-3.1411 IF -0.2988
-3.1411 IMAGINARY, -0.2960
-1.9950 IN -0.2762
-3.1411 INTO -0.3007
-3.1411 IRREGULAR -0.3007
-2.2960 IS -0.2909
-3.1411 IS. -0.3001
-2.2380 IT -0.2957
-3.1411 IT, -0.2985
-2.8401 ITS -0.2998
-3.1411 ITSELF. -0.2928
-2.6640 IT’S -0.2991
-2.6640 JUST -0.2828
-3.1411 KIDS -0.2960
-3.1411 KIND -0.2918
-3.1411 KIND. -0.2963
-3.1411 KNOW -0.2976
-3.1411 KNOWN -0.3004
-3.1411 LACK -0.2918
-3.1411 LAST -0.2918
-2.4422 LAW -0.2880
-3.1411 LEFT -0.3001
-3.1411 LEPRECHAUNS. -0.3007
-3.1411 LIFE. -0.2963
-3.1411 LIGHTS. -0.2998
-2.6640 LIKE -0.2925
-3.1411 LINES -0.3007
-3.1411 LITTLE -0.3004
-2.8401 LIVING -0.2963
-3.1411 LONG -0.3007
-2.8401 LOOK -0.2998
-3.1411 LOOKS -0.3001
-3.1411 LOVED -0.3007
-3.1411 MADE -0.3001
-3.1411 MAGIC -0.2960
-3.1411 MAKING -0.2928
-3.1411 MAN. -0.3001
-3.1411 MANOR -0.2918
-3.1411 MEAT -0.3007
-3.1411 MEMORIAL -0.2960
-3.1411 MEMORIES -0.2918
-3.1411 MERMAIDS. -0.3007
-2.8401 MIDDLE -0.2912
-3.1411 MIGHT -0.3007
-3.1411 MOON -0.3007
-3.1411 MORE -0.3007
-3.1411 MORE. -0.2883
-3.1411 MORNING -0.2960
-3.1411 NANS -0.2960
-3.1411 NATION’S -0.3007
-3.1411 NATURE -0.2960
-3.1411 NEED -0.3007
-3.1411 NIGHT -0.2883
-3.1411 NIGHT. -0.3007
-2.6640 NO -0.2991
-2.5391 NOT -0.2905
-3.1411 NOT-QUITE-EXTINCT -0.3001
-3.1411 NOTHING -0.3007
-3.1411 NOW -0.2883
-3.1411 NOW. -0.2985
-1.6787 OF -0.2685
-2.8401 OFF -0.2798
-2.8401 ON -0.2998
-2.8401 ONE -0.3004
-3.1411 ONES -0.2976
-2.8401 ONLY -0.2953
-2.8401 OR -0.2995
-2.8401 OUT -0.2909
-3.1411 OUT. -0.2985
-3.1411 OVAL -0.3007
-2.6640 OVER -0.2880
-3.1411 PACK -0.2918
-3.1411 PARENTS, -0.3007
-3.1411 PAST -0.3007
-3.1411 PATRON -0.3004
-2.5391 PEOPLE -0.2896
-3.1411 PERCEIVING -0.3001
-3.1411 PERHAPS -0.3007
-3.1411 PRESENCE -0.2918
-3.1411 PULL -0.2883
-3.1411 PUT -0.2883
-3.1411 QUIETLY -0.3007
-3.1411 RATHER -0.3001
-3.1411 REAL -0.3007
-3.1411 REALITY. -0.2963
-3.1411 RED -0.3007
-3.1411 RED-HOT -0.3004
-3.1411 RED. -0.3007
-3.1411 REMARKABLY -0.3007
-3.1411 REMEMBER -0.2928
-3.1411 RETURN -0.2960
-3.1411 ROAMING -0.2883
-3.1411 ROLL -0.3004
-3.1411 RUN -0.3004
-3.1411 RUNS -0.3007
-2.6640 SAINT -0.3001
-2.8401 SAINT. -0.2960
-3.1411 SAUSAGES -0.2960
-3.1411 SAY -0.3001
-3.1411 SCHOOL -0.3007
-3.1411 SCIENTISTS -0.2966
-3.1411 SCOTLAND -0.3007
-3.1411 SEE -0.2998
-3.1411 SELECT -0.3007
-3.1411 SELF -0.3007
-3.1411 SELLER -0.3007
-3.1411 SHAPED -0.3004
-2.8401 SHOULD -0.2988
-3.1411 SHUT, -0.3007
-3.1411 SILENTLY -0.3007
-3.1411 SITS -0.3007
-3.1411 SLAYED -0.3004
-3.1411 SLICED -0.2960
-3.1411 SLICES -0.2918
-3.1411 SMALL -0.3007
-3.1411 SMALL, -0.3007
-2.5391 SO -0.2969
-2.6640 SOME -0.2982
-2.6640 SOMETHING -0.2972
-3.1411 SOUND. -0.2991
-3.1411 SPECIES -0.3007
-3.1411 SPELL -0.3007
-3.1411 SPRING -0.3001
-3.1411 ST -0.3004
-3.1411 STAINS -0.3007
-3.1411 START -0.2960
-3.1411 STARTED -0.2960
-3.1411 STARTING -0.2960
-3.1411 STARTS -0.2960
-3.1411 STEEL -0.3007
-2.8401 STORIES -0.2991
-2.6640 STORIES. -0.2831
-3.1411 STORY -0.3007
-3.1411 STREET -0.3007
-3.1411 STROKED -0.3004
-3.1411 SUCKING, -0.3007
-3.1411 SWORD -0.2976
-3.1411 TALES -0.2918
-3.1411 TALK -0.2966
-2.3630 TAP -0.2985
-2.8401 TAP. -0.2831
-3.1411 TAPPING -0.3007
-3.1411 TAY -0.3007
-3.1411 TERRIFYING. -0.3001
-3.1411 THAN -0.2960
-3.1411 THANKFULLY -0.2988
-2.0997 THAT -0.2925
-1.5391 THE -0.2701
-2.6640 THEIR -0.2998
-2.8401 THEM -0.3004
-3.1411 THEN -0.2960
-2.5391 THERE -0.2957
-2.8401 THESE -0.2995
-2.5391 THEY -0.2979
-2.8401 THINK -0.2991
-2.6640 THIS -0.3001
-3.1411 THOUGHT. -0.2963
-3.1411 THROUGH -0.3004
-2.8401 TIME -0.2991
-2.8401 TINY -0.3004
-1.9370 TO -0.2732
-3.1411 TOLD -0.3001
-3.1411 TONES -0.2918
-3.1411 TOUGHEST -0.3007
-3.1411 TOWERING -0.3007
-3.1411 TURN -0.3004
-3.1411 TURNED -0.3007
-3.1411 TV, -0.2960
-3.1411 UNCLES, -0.3007
-2.8401 UNDER -0.2880
-3.1411 UNICORNS. -0.3007
-3.1411 UNIVERSITY -0.2988
-3.1411 UNTIL -0.2998
-3.1411 UNTRUE. -0.2998
-3.1411 UP -0.2966
-3.1411 VAMPIRES. -0.3007
-3.1411 VERY -0.3004
-3.1411 VILLAGES. -0.2960
-3.1411 VOLCANO -0.2976
-2.6640 VOLCANO. -0.2915
-3.1411 VOLCANOES -0.2918
-3.1411 WARM -0.3007
-2.4422 WAS -0.2778
-3.1411 WASN’T -0.3001
-3.1411 WATCHING -0.3001
-2.8401 WAY -0.2972
-2.4422 WE -0.2991
-3.1411 WEE -0.3007
-2.5391 WERE -0.2867
-3.1411 WEREN’T -0.3001
-3.1411 WEREWOLVES. -0.3007
-3.1411 WHEN -0.2883
-3.1411 WILD, -0.3007
-2.5391 WILL -0.2988
-3.1411 WINDOW -0.3004
-3.1411 WINGS. -0.2883
-3.1411 WIPED -0.3004
-3.1411 WITCHES. -0.3007
-3.1411 WIZARDS. -0.3007
-3.1411 WONDER. -0.2963
-3.1411 WORLD -0.2966
-3.1411 WORLD. -0.2960
-3.1411 WOULD -0.3007
-3.1411 WOW -0.3007
-3.1411 YES -0.2918
-3.1411 YET -0.2985
-2.2960 YOU -0.2972
-3.1411 YOU. -0.2963
-2.8401 YOUR -0.3004
-3.1411 ‘LAW’ -0.2988
-3.1411 “NONSENSE” -0.2988

\2-grams:
-0.3010 - ANOTHER 0.0000
-0.3010 23RD OF -0.2935
-1.1761 <s> DRAGONS 0.0000
-1.4771 <s> DRAGONS. -0.2218
-1.4771 <s> DUNDEE -0.2041
-1.4771 <s> EXCEPT. 0.0000
-1.4771 <s> FOR. 0.0000
-1.4771 <s> I 0.0000
-1.4771 <s> IN -0.2688
-1.4771 <s> NOW 0.0000
-1.4771 <s> OR -0.1761
-1.4771 <s> SAINT -0.1249
-1.4771 <s> THE -0.2956
-1.4771 <s> UNICORNS. 0.0000
-1.4771 <s> YET 0.0000
-1.4771 <s> “NONSENSE” 0.0000
-1.7160 A BARBARIC 0.0000
-1.7160 A CELEBRATION -0.1761
-1.7160 A CHAT. 0.0000
-1.4150 A DAY -0.1249
-1.7160 A DOZEN 0.0000
-1.4150 A FACT 0.0000
-1.7160 A FOSSIL -0.1761
-1.7160 A FOSSILISED -0.1761
-1.7160 A GIANT 0.0000
-1.7160 A HIGH 0.0000
-1.7160 A LAW -0.2553
-1.7160 A LITTLE 0.0000
-1.7160 A MEMORIAL 0.0000
-1.7160 A NATION’S 0.0000
-1.7160 A NOT-QUITE-EXTINCT 0.0000
-1.7160 A PACK 0.0000
-1.7160 A SELECT 0.0000
-1.7160 A SELF 0.0000
-1.7160 A TINY -0.1761
-1.7160 A VERY 0.0000
-1.7160 A VOLCANO 0.0000
-1.4150 A VOLCANO. 0.0000
-1.7160 A WEE 0.0000
-0.3010 ABOUT TALES 0.0000
-0.7782 AGAIN - 0.0000
-0.7782 AGAIN AND -0.2872
-0.7782 AGAIN TO -0.2730
-0.3010 ALIVE. TAP -0.1249
-0.7782 ALL MANOR 0.0000
-0.7782 ALL OVER -0.1249
-0.7782 ALL WILD, 0.0000
-0.3010 ALL. </s> -0.3010
-0.3010 ALONG THE -0.2956
-0.6021 ALSO IN -0.2852
-0.6021 ALSO THE -0.2956
-0.3010 ALTOGETHER. IN -0.2688
-0.6021 AN ENTIRE 0.0000
-0.6021 AN OVAL 0.0000
-1.5051 AND AGAIN -0.2218
-1.5051 AND AROUND 0.0000
-1.5051 AND AS -0.2218
-1.5051 AND BE -0.2218
-1.5051 AND DICED 0.0000
-1.5051 AND EVERY -0.1761
-1.5051 AND GRANDADS 0.0000
-1.5051 AND LOVED 0.0000
-1.5051 AND PERHAPS 0.0000
-1.5051 AND REMEMBER 0.0000
-1.5051 AND SLAYED 0.0000
-1.5051 AND SOME -0.2218
-1.5051 AND TERRIFYING. 0.0000
-1.5051 AND UNTRUE. 0.0000
-1.5051 AND WONDER. 0.0000
-1.5051 AND YES 0.0000
-0.3010 ANOTHER STORY 0.0000
-0.3010 APRIL IS -0.2688
-0.7782 ARE A -0.2926
-0.7782 ARE NO -0.2218
-0.7782 ARE TOLD 0.0000
-0.3010 AROUND THE -0.2956
-0.7782 AS THE -0.2956
-0.7782 AS TINY -0.1761
-0.7782 AS YOU -0.2688
-0.3010 AT ALL. 0.0000
-0.3010 ATROCITIES. IT -0.2430
-0.3010 AUNTS, UNCLES, 0.0000
-0.3010 BACON, A -0.2926
-0.3010 BARBARIC BUTCHER. 0.0000
-0.4771 BE A -0.2840
-0.7782 BE STROKED 0.0000
-0.3010 BEASTS ROAMING 0.0000
-0.3010 BEAT OF -0.2935
-0.3010 BED EARLY 0.0000
-0.3010 BEDROOM WINDOW 0.0000
-0.3010 BEHIND THE -0.2956
-0.3010 BLADE OF -0.2935
-0.6021 BLOOD FLOWED 0.0000
-0.6021 BLOOD SUCKING, 0.0000
-0.3010 BLUE BLADE 0.0000
-0.3010 BLUE. THE -0.2956
-0.3010 BONE-CRUNCHING, SPELL 0.0000
-0.3010 BONES OF -0.2700
-0.3010 BORN. DRAGON -0.1761
-0.6021 BREAK OUT -0.1761
-0.6021 BREAK THEM -0.1761
-0.3010 BREATH FIRE. 0.0000
-0.3010 BREATHING BEASTS 0.0000
-0.3010 BRIDGE GRUMPING, 0.0000
-0.3010 BUNYIPS. GOBLINS. 0.0000
-0.7782 BUT ALSO -0.1761
-0.7782 BUT DID -0.2430
-0.7782 BUT THEY -0.2430
-0.3010 BUTCHER. HIS 0.0000
-0.3010 BY SAINT -0.1249
-0.3010 CAN ONLY -0.1761
-0.3010 CASTING, BLOOD -0.1761
-0.3010 CEILING. HERE 0.0000
-0.3010 CELEBRATING ST 0.0000
-0.6021 CELEBRATION IT -0.2730
-0.6021 CELEBRATION OF -0.2780
-0.3010 CHANGE FROM -0.2218
-0.3010 CHAT. IT’S -0.1249
-0.3010 CHECK ON -0.1761
-0.3010 CHICKEN WINGS. 0.0000
-0.3010 CHILD IN -0.2852
-0.3010 CHILDREN'S STORIES. -0.2218
-0.3010 CHILL THE -0.2956
-0.3010 CHIN. SO -0.2430
-0.3010 CITY. IT’S -0.2218
-0.3010 COLD BLUE 0.0000
-0.6021 COURSE LEFT 0.0000
-0.6021 COURSE SOME -0.2218
-0.3010 CRACKING HEAT -0.1761
-0.7782 CREATURES FADED 0.0000
-0.7782 CREATURES OF -0.2700
-0.7782 CREATURES THAT -0.2808
-0.3010 CREATURES, MAGIC 0.0000
-0.3010 CURL UP 0.0000
-0.3010 CURTAINS SHUT, 0.0000
-0.3010 CYCLOPS. FAIRIES. 0.0000
-0.7782 DAY IS -0.2688
-0.4771 DAY OF -0.2858
-0.3010 DAY. THE -0.2956
-0.3010 DEPTH PERCEIVING 0.0000
-0.3010 DETAIL. HEY 0.0000
-0.3010 DICED AND -0.2872
-0.9031 DID OF -0.2935
-0.9031 DID THE -0.2956
-0.9031 DID WE -0.2553
-0.9031 DID YOU -0.2688
-0.3010 DIE, SO -0.2430
-0.6021 DIFFERENT EVENT 0.0000
-0.6021 DIFFERENT IN -0.2852
-0.3010 DIM THE -0.2956
-0.3010 DISCOVERED? BUT -0.2218
-0.3010 DISPATCHED BY 0.0000
-0.3010 DO YOU -0.2688
-0.3010 DOESN’T LOOK -0.1761
-0.3010 DON’T EXIST. 0.0000
-0.3010 DOZEN SLICES 0.0000
-0.6021 DRAGON BLOOD -0.1761
-0.6021 DRAGON EGGS 0.0000
-0.6021 DRAGONS ARE -0.2218
-0.6021 DRAGONS HAVE 0.0000
-0.7782 DRAGONS. </s> -0.3010
-0.7782 DRAGONS. ALL -0.2218
-0.7782 DRAGONS. UNTIL 0.0000
-0.6990 DUNDEE LAW -0.2041
-1.0000 DUNDEE LIVING -0.1761
-1.0000 DUNDEE THANKFULLY 0.0000
-1.0000 DUNDEE THE -0.2956
-0.3010 DUNDEE. THE -0.2900
-0.3010 DWELLING, UNDER -0.1761
-0.3010 EARLY AND -0.2872
-0.3010 EARTH CRACKING 0.0000
-0.6021 EGG IN -0.2688
-0.6021 EGG TO -0.2872
-0.3010 EGG. A -0.2926
-0.3010 EGGS NEED 0.0000
-0.3010 ELVES. LEPRECHAUNS. 0.0000
-0.3010 ENTIRE SPECIES 0.0000
-0.3010 EVENT ALTOGETHER. 0.0000
-0.6021 EVERY MORNING 0.0000
-0.6021 EVERY NIGHT. 0.0000
-0.3010 EXCEPT. </s> -0.3010
-0.3010 EXIST NOT -0.2430
-0.3010 EXIST. THESE -0.1761
-0.3010 EYES TO -0.2872
-0.6021 FACT KNOWN 0.0000
-0.6021 FACT THAT -0.2808
-0.3010 FADED INTO 0.0000
-0.3010 FAIRIES. ELVES. 0.0000
-0.3010 FANTASTICAL CREATURES, 0.0000
-0.3010 FAST ALONG 0.0000
-0.3010 FAULT OF -0.2935
-0.3010 FEW SCIENTISTS 0.0000
-0.3010 FIND IN -0.2852
-0.7782 FIRE AND -0.2872
-0.7782 FIRE BREATHING 0.0000
-0.7782 FIRE WAS -0.2553
-0.3010 FIRE. WOW 0.0000
-0.3010 FIRTH RUNS 0.0000
-0.3010 FIRTH. </s> -0.3010
-0.3010 FLOWED FAST 0.0000
-0.3010 FOR A -0.2926
-0.3010 FOR. </s> -0.3010
-0.3010 FOREST DWELLING, 0.0000
-0.3010 FORM. THERE -0.2430
-0.6021 FOSSIL OF -0.2780
-0.6021 FOSSIL THAT -0.2808
-0.6021 FOSSILISED AT 0.0000
-0.6021 FOSSILISED EGG -0.1761
-0.3010 FREE. THE -0.2956
-0.3010 FRIENDLY AND -0.2872
-0.7782 FROM A -0.2840
-0.7782 FROM SOMETHING -0.1249
-0.7782 FROM THEN 0.0000
-0.3010 FRONT OF -0.2780
-0.3010 GATES, THERE -0.2430
-0.6021 GEORGE WAS -0.2553
-0.6021 GEORGE WERE -0.2430
-0.3010 GEORGE. </s> -0.3010
-0.6021 GEORGE’S DAY. 0.0000
-0.6021 GEORGE’S SWORD 0.0000
-0.3010 GET FROM -0.1249
-0.3010 GHOSTS. VAMPIRES. 0.0000
-0.3010 GIANT EGG. 0.0000
-0.3010 GIANTS. WITCHES. 0.0000
-0.3010 GLEAMING STEEL 0.0000
-0.3010 GO AGAIN -0.2218
-0.3010 GOBLINS. DRAGONS. -0.2218
-0.3010 GONE. THE -0.2956
-0.3010 GRANDADS WILL -0.2430
-0.3010 GRANS, NANS 0.0000
-0.3010 GREEN LINES 0.0000
-0.3010 GRUMPING, LACK 0.0000
-0.3010 HAD A -0.2926
-0.3010 HAS IN -0.2852
-0.3010 HATCH…. </s> -0.3010
-0.3010 HAVE OF -0.2858
-0.3010 HE WAS -0.2553
-0.6021 HEAT THAT -0.2808
-0.6021 HEAT TO -0.2730
-0.3010 HERE WE -0.2553
-0.3010 HEY EXIST 0.0000
-0.3010 HIGH STREET 0.0000
-0.3010 HIS GLEAMING 0.0000
-0.3010 HOMES, PUT 0.0000
-0.3010 HORROR. IT -0.2430
-0.3010 HOW DID -0.2430
-0.3010 HOWLING, BONE-CRUNCHING, 0.0000
-0.3010 HUGE AND -0.2872
-0.3010 HUSHED TONES 0.0000
-0.3010 I THINK -0.1761
-0.3010 IF YOU -0.2688
-0.3010 IMAGINARY, AND -0.2872
-1.4472 IN AND -0.2872
-1.1461 IN DUNDEE -0.2041
-1.4472 IN DUNDEE. 0.0000
-1.4472 IN FRONT 0.0000
-1.4472 IN HUSHED 0.0000
-1.4472 IN ITS -0.1761
-1.4472 IN ONE -0.1761
-1.4472 IN REAL 0.0000
-1.4472 IN STORIES -0.1761
-1.4472 IN STORIES. -0.2218
-1.1461 IN THE -0.2900
-1.4472 IN THEIR -0.2218
-0.3010 INTO CHILDREN'S 0.0000
-0.3010 IRREGULAR BEAT 0.0000
-0.5441 IS A -0.2382
-1.1461 IS MAKING 0.0000
-1.1461 IS NOT -0.2430
-1.1461 IS STARTING 0.0000
-0.3010 IS. BUT -0.2218
-1.2041 IT IS -0.1549
-1.2041 IT IS. 0.0000
-0.9031 IT SHOULD 0.0000
-1.2041 IT STARTS 0.0000
-0.9031 IT WAS -0.2041
-1.2041 IT WASN’T 0.0000
-0.3010 IT, IT -0.2730
-0.6021 ITS MIDDLE -0.1761
-0.6021 ITS WAY -0.1761
-0.3010 ITSELF. A -0.2840
-0.7782 IT’S THERE -0.2430
-0.4771 IT’S TIME 0.0000
-0.7782 JUST IN -0.2852
-0.7782 JUST LIKE -0.2218
-0.7782 JUST THE -0.2956
-0.3010 KIDS TO -0.2872
-0.3010 KIND OF -0.2935
-0.3010 KIND. </s> -0.3010
-0.3010 KNOW THAT -0.2808
-0.3010 KNOWN ONLY -0.1761
-0.3010 LACK OF -0.2935
-0.3010 LAST OF -0.2935
-0.6990 LAW IS -0.1091
-1.0000 LAW OF -0.2935
-1.0000 LAW SITS 0.0000
-1.0000 LAW WILL -0.2430
-0.3010 LEFT THIS -0.2218
-0.3010 LEPRECHAUNS. MERMAIDS. 0.0000
-0.3010 LIFE. </s> -0.3010
-0.3010 LIGHTS. THEY -0.2430
-0.4771 LIKE A -0.2840
-0.7782 LIKE YOU. 0.0000
-0.3010 LINES START 0.0000
-0.3010 LITTLE DIFFERENT -0.1761
-0.6021 LIVING FORM. 0.0000
-0.6021 LIVING IN -0.2852
-0.3010 LONG GONE. 0.0000
-0.6021 LOOK FOSSILISED -0.1761
-0.6021 LOOK OUT -0.1761
-0.3010 LOOKS LIKE -0.1249
-0.3010 LOVED NOTHING 0.0000
-0.3010 MADE FIRE -0.2218
-0.3010 MAGIC AND -0.2872
-0.3010 MAKING A -0.2926
-0.3010 MAN. SAINT -0.2218
-0.3010 MANOR OF -0.2935
-0.3010 MEAT SELLER 0.0000
-0.3010 MEMORIAL TO -0.2872
-0.3010 MEMORIES OF -0.2935
-0.3010 MERMAIDS. GHOSTS. 0.0000
-0.6021 MIDDLE AN -0.1761
-0.6021 MIDDLE OF -0.2700
-0.3010 MIGHT RUN 0.0000
-0.3010 MOON HOWLING, 0.0000
-0.3010 MORE THAN 0.0000
-0.3010 MORE. THE -0.2956
-0.3010 MORNING AND -0.2872
-0.3010 NANS AND -0.2872
-0.3010 NATION’S PATRON 0.0000
-0.3010 NATURE TO -0.2872
-0.3010 NEED EARTH 0.0000
-0.3010 NIGHT THE -0.2956
-0.3010 NIGHT. IF 0.0000
-0.7782 NO FIRE -0.2218
-0.7782 NO MORE. 0.0000
-0.7782 NO SAINT. -0.1761
-0.9031 NOT A -0.2840
-0.9031 NOT BE -0.1249
-0.9031 NOT JUST -0.2218
-0.9031 NOT SEE 0.0000
-0.3010 NOT-QUITE-EXTINCT VOLCANO. -0.1249
-0.3010 NOTHING MORE 0.0000
-0.3010 NOW THE -0.2956
-0.3010 NOW. IT -0.2430
-1.2863 OF A -0.2752
-1.7634 OF APRIL 0.0000
-1.7634 OF BACON, 0.0000
-1.7634 OF BREATH 0.0000
-1.7634 OF CELEBRATION -0.1761
-1.4624 OF COURSE 0.0000
-1.7634 OF DEPTH 0.0000
-1.4624 OF DUNDEE -0.1461
-1.7634 OF FANTASTICAL 0.0000
-1.7634 OF GEORGE’S -0.1761
-1.7634 OF HORROR. 0.0000
-1.7634 OF MOON 0.0000
-1.7634 OF NATURE 0.0000
-1.7634 OF ONE -0.1761
-1.7634 OF RED-HOT 0.0000
-1.7634 OF SAUSAGES 0.0000
-1.7634 OF SCOTLAND 0.0000
-1.7634 OF SOMETHING -0.2218
-1.1614 OF THE -0.2730
-1.7634 OF THEIR -0.2218
-1.7634 OF THESE -0.1761
-1.7634 OF YOUR -0.1761
-0.6021 OFF A -0.2926
-0.6021 OFF THE -0.2956
-0.6021 ON REALITY. 0.0000
-0.6021 ON THIS -0.2218
-0.6021 ONE MAN. 0.0000
-0.6021 ONE REMARKABLY 0.0000
-0.3010 ONES THAT -0.2808
-0.6021 ONLY GET 0.0000
-0.6021 ONLY TO -0.2872
-0.6021 OR BEHIND 0.0000
-0.6021 OR SO -0.2430
-0.6021 OUT OF -0.2935
-0.6021 OUT OVER -0.2218
-0.3010 OUT. IT -0.2430
-0.3010 OVAL SHAPED 0.0000
-0.7782 OVER IT, 0.0000
-0.4771 OVER THE -0.2900
-0.3010 PACK OF -0.2935
-0.3010 PARENTS, AUNTS, 0.0000
-0.3010 PAST ATROCITIES. 0.0000
-0.3010 PATRON SAINT. -0.1761
-0.9031 PEOPLE ALL -0.2218
-0.9031 PEOPLE CELEBRATING 0.0000
-0.9031 PEOPLE JUST -0.2218
-0.9031 PEOPLE OF -0.2858
-0.3010 PERCEIVING CREATURES -0.2218
-0.3010 PERHAPS DIM 0.0000
-0.3010 PRESENCE OF -0.2858
-0.3010 PULL THE -0.2956
-0.3010 PUT THE -0.2956
-0.3010 QUIETLY RETURN 0.0000
-0.3010 RATHER LIKE -0.1249
-0.3010 REAL LIFE. 0.0000
-0.3010 REALITY. </s> -0.3010
-0.3010 RED STAINS 0.0000
-0.3010 RED-HOT HEAT -0.1761
-0.3010 RED. WHEN 0.0000
-0.3010 REMARKABLY SMALL 0.0000
-0.3010 REMEMBER A -0.2926
-0.3010 RETURN TO -0.2872
-0.3010 ROAMING THE -0.2956
-0.3010 ROLL YOUR -0.1761
-0.3010 RUN OFF -0.1761
-0.3010 RUNS BLUE. 0.0000
-0.4771 SAINT GEORGE 0.0000
-0.7782 SAINT GEORGE. 0.0000
-0.6021 SAINT. </s> -0.3010
-0.6021 SAINT. HE 0.0000
-0.3010 SAUSAGES AND -0.2872
-0.3010 SAY AS -0.2218
-0.3010 SCHOOL GATES, 0.0000
-0.3010 SCIENTISTS IN -0.2688
-0.3010 SCOTLAND STARTED 0.0000
-0.3010 SEE PEOPLE -0.2430
-0.3010 SELECT FEW 0.0000
-0.3010 SELF MADE 0.0000
-0.3010 SELLER MIGHT 0.0000
-0.3010 SHAPED FOSSIL -0.1761
-0.6021 SHOULD BE -0.1249
-0.6021 SHOULD NOT -0.2430
-0.3010 SHUT, TURN 0.0000
-0.3010 SILENTLY WATCHING 0.0000
-0.3010 SITS SILENTLY 0.0000
-0.3010 SLAYED ITS -0.1761
-0.3010 SLICED AND -0.2872
-0.3010 SLICES OF -0.2935
-0.3010 SMALL DETAIL. 0.0000
-0.3010 SMALL, FRIENDLY 0.0000
-0.9031 SO AS -0.2218
-0.9031 SO DID -0.2430
-0.9031 SO HOW 0.0000
-0.9031 SO WE -0.2553
-0.7782 SOME CHICKEN 0.0000
-0.7782 SOME DID -0.2430
-0.7782 SOME WERE -0.2430
-0.7782 SOMETHING ALIVE. 0.0000
-0.4771 SOMETHING THAT -0.2596
-0.3010 SOUND. TAP -0.1249
-0.3010 SPECIES RATHER 0.0000
-0.3010 SPELL CASTING, 0.0000
-0.3010 SPRING DAY -0.2218
-0.3010 ST GEORGE’S -0.1761
-0.3010 STAINS LONG 0.0000
-0.3010 START TO -0.2730
-0.3010 STARTED TO -0.2872
-0.3010 STARTING TO -0.2872
-0.3010 STARTS TO -0.2872
-0.3010 STEEL SLICED 0.0000
-0.6021 STORIES ARE -0.2218
-0.6021 STORIES BUT -0.2218
-0.7782 STORIES. </s> -0.3010
-0.7782 STORIES. IMAGINARY, 0.0000
-0.7782 STORIES. THE -0.2956
-0.3010 STORY ABOUT 0.0000
-0.3010 STREET MEAT 0.0000
-0.3010 STROKED UNDER -0.1761
-0.3010 SUCKING, FOREST 0.0000
-0.3010 SWORD THAT -0.2808
-0.3010 TALES OF -0.2935
-0.3010 TALK IN -0.2852
-0.4771 TAP TAP 0.0000
-0.7782 TAP TAP. 0.0000
-0.6021 TAP. AND -0.2872
-0.6021 TAP. THE -0.2956
-0.3010 TAPPING SOUND. 0.0000
-0.3010 TAY TURNED 0.0000
-0.3010 TERRIFYING. SOME -0.2218
-0.3010 THAN TO -0.2872
-0.3010 THANKFULLY YOU -0.2688
-1.3424 THAT DISPATCHED 0.0000
-1.3424 THAT DOESN’T 0.0000
-1.3424 THAT HAS 0.0000
-1.3424 THAT LOOKS 0.0000
-1.3424 THAT ON -0.1761
-1.3424 THAT THEY -0.2430
-1.3424 THAT THIS -0.2218
-1.3424 THAT WE -0.2553
-1.3424 THAT WIPED 0.0000
-1.3424 THAT WOULD 0.0000
-1.3424 THAT YOU -0.2688
-1.9031 THE 23RD 0.0000
-1.9031 THE BONES 0.0000
-1.9031 THE CEILING. 0.0000
-1.9031 THE CHIN. 0.0000
-1.9031 THE CITY. 0.0000
-1.9031 THE COLD 0.0000
-1.9031 THE CREATURES -0.2218
-1.9031 THE CURTAINS 0.0000
-1.9031 THE DRAGON -0.1761
-1.9031 THE DRAGONS. -0.2218
-1.9031 THE EGG -0.1761
-1.9031 THE FAULT 0.0000
-1.9031 THE FIRTH 0.0000
-1.9031 THE FIRTH. 0.0000
-1.9031 THE IRREGULAR 0.0000
-1.9031 THE KIDS 0.0000
-1.9031 THE KIND 0.0000
-1.9031 THE LAST 0.0000
-1.6021 THE LAW -0.2041
-1.9031 THE LIGHTS. 0.0000
-1.9031 THE MEMORIES 0.0000
-1.9031 THE MIDDLE -0.1761
-1.9031 THE NIGHT 0.0000
-1.9031 THE ONES 0.0000
-1.9031 THE PARENTS, 0.0000
-1.9031 THE PEOPLE -0.2430
-1.9031 THE RED 0.0000
-1.9031 THE SCHOOL 0.0000
-1.9031 THE STORIES. -0.2218
-1.9031 THE TAY 0.0000
-1.9031 THE THE -0.2956
-1.9031 THE TOUGHEST 0.0000
-1.9031 THE TOWERING 0.0000
-1.9031 THE TV, 0.0000
-1.9031 THE UNIVERSITY 0.0000
-1.9031 THE VILLAGES. 0.0000
-1.9031 THE VOLCANOES 0.0000
-1.9031 THE WAY -0.1761
-1.9031 THE WORLD. 0.0000
-0.7782 THEIR HOMES, 0.0000
-0.7782 THEIR KIND. 0.0000
-0.7782 THEIR LIVING -0.1761
-0.6021 THEM FREE. 0.0000
-0.6021 THEM OUT. 0.0000
-0.3010 THEN TO -0.2872
-0.9031 THERE ARE -0.2218
-0.9031 THERE EVERY -0.1761
-0.9031 THERE IT -0.2730
-0.9031 THERE WERE -0.2430
-0.6021 THESE CREATURES -0.2218
-0.6021 THESE STORIES -0.1761
-0.9031 THEY DON’T 0.0000
-0.9031 THEY WERE -0.2430
-0.9031 THEY WEREN’T 0.0000
-0.9031 THEY WILL -0.2430
-0.6021 THINK FIRE -0.2218
-0.6021 THINK IT’S -0.1249
-0.7782 THIS WARM 0.0000
-0.7782 THIS WORLD 0.0000
-0.7782 THIS ‘LAW’ 0.0000
-0.3010 THOUGHT. </s> -0.3010
-0.3010 THROUGH AN -0.1761
-0.6021 TIME FOR 0.0000
-0.6021 TIME WE -0.2553
-0.6021 TINY GREEN 0.0000
-0.6021 TINY TAPPING 0.0000
-1.5051 TO A -0.2926
-1.5051 TO BED 0.0000
-1.2041 TO BREAK 0.0000
-1.5051 TO CHANGE 0.0000
-1.5051 TO CURL 0.0000
-1.5051 TO DIE, 0.0000
-1.5051 TO HATCH…. 0.0000
-1.5051 TO ITSELF. 0.0000
-1.5051 TO NOW. 0.0000
-1.5051 TO PAST 0.0000
-1.2041 TO PEOPLE -0.1761
-1.5051 TO SOMETHING -0.1249
-1.5051 TO THE -0.2956
-1.5051 TO THEIR -0.2218
-0.3010 TOLD AGAIN -0.2218
-0.3010 TONES OF -0.2700
-0.3010 TOUGHEST CHILD 0.0000
-0.3010 TOWERING PRESENCE 0.0000
-0.3010 TURN OFF -0.1761
-0.3010 TURNED RED. 0.0000
-0.3010 TV, AND -0.2872
-0.3010 UNCLES, GRANS, 0.0000
-0.6021 UNDER BRIDGE 0.0000
-0.6021 UNDER THE -0.2956
-0.3010 UNICORNS. GIANTS. 0.0000
-0.3010 UNIVERSITY IS -0.1549
-0.3010 UNTIL THERE -0.2430
-0.3010 UNTRUE. THEY -0.2430
-0.3010 UP IN -0.2852
-0.3010 VAMPIRES. WEREWOLVES. 0.0000
-0.3010 VERY DIFFERENT -0.1761
-0.3010 VILLAGES. AND -0.2872
-0.3010 VOLCANO THAT -0.2808
-0.4771 VOLCANO. A -0.2840
-0.7782 VOLCANO. SO -0.2430
-0.3010 VOLCANOES OF -0.2935
-0.3010 WARM SPRING 0.0000
-1.0000 WAS A -0.2926
-1.0000 WAS ALSO -0.1761
-1.0000 WAS DISCOVERED? 0.0000
-1.0000 WAS NO -0.2218
-1.0000 WAS THE -0.2956
-0.3010 WASN’T JUST -0.2218
-0.3010 WATCHING OVER -0.1249
-0.6021 WAY THAT -0.2808
-0.6021 WAY THROUGH 0.0000
-1.0000 WE FIND 0.0000
-1.0000 WE GET 0.0000
-1.0000 WE GO 0.0000
-1.0000 WE HAD 0.0000
-1.0000 WE THOUGHT. 0.0000
-0.3010 WEE CHECK 0.0000
-0.9031 WERE BORN. 0.0000
-0.9031 WERE NO -0.2218
-0.9031 WERE SMALL, 0.0000
-0.9031 WERE THE -0.2956
-0.3010 WEREN’T ALL -0.2218
-0.3010 WEREWOLVES. BUNYIPS. 0.0000
-0.3010 WHEN THE -0.2956
-0.3010 WILD, HUGE 0.0000
-0.9031 WILL NOT -0.2430
-0.9031 WILL PULL 0.0000
-0.9031 WILL QUIETLY 0.0000
-0.9031 WILL TALK 0.0000
-0.3010 WINDOW OR -0.1761
-0.3010 WINGS. THE -0.2956
-0.3010 WIPED THEM -0.1761
-0.3010 WITCHES. WIZARDS. 0.0000
-0.3010 WIZARDS. CYCLOPS. 0.0000
-0.3010 WONDER. </s> -0.3010
-0.3010 WORLD IN -0.2852
-0.3010 WORLD. TO -0.2730
-0.3010 WOULD CHILL 0.0000
-0.3010 WOW DO 0.0000
-0.3010 YES OF -0.2858
-0.3010 YET IT -0.2730
-1.1461 YOU CAN 0.0000
-1.1461 YOU KNOW 0.0000
-1.1461 YOU LOOK -0.1761
-1.1461 YOU ROLL 0.0000
-1.1461 YOU SAY 0.0000
-1.1461 YOU THINK -0.1761
-1.1461 YOU WILL -0.2430
-0.3010 YOU. </s> -0.3010
-0.6021 YOUR BEDROOM 0.0000
-0.6021 YOUR EYES 0.0000
-0.3010 ‘LAW’ IS -0.1549
-0.3010 “NONSENSE” YOU -0.2688

\3-grams:
-0.3010 - ANOTHER STORY
-0.3010 23RD OF APRIL
-0.6021 <s> DRAGONS ARE
-0.6021 <s> DRAGONS HAVE
-0.3010 <s> DRAGONS. </s>
-0.3010 <s> DUNDEE LAW
-0.3010 <s> EXCEPT. </s>
-0.3010 <s> FOR. </s>
-0.3010 <s> I THINK
-0.3010 <s> IN DUNDEE
-0.3010 <s> NOW THE
-0.3010 <s> OR SO
-0.3010 <s> SAINT GEORGE
-0.3010 <s> THE EGG
-0.3010 <s> UNICORNS. GIANTS.
-0.3010 <s> YET IT
-0.3010 <s> “NONSENSE” YOU
-0.3010 A BARBARIC BUTCHER.
-0.3010 A CELEBRATION OF
-0.3010 A CHAT. IT’S
-0.3010 A DAY OF
-0.3010 A DOZEN SLICES
-0.6021 A FACT KNOWN
-0.6021 A FACT THAT
-0.3010 A FOSSIL THAT
-0.3010 A FOSSILISED EGG
-0.3010 A GIANT EGG.
-0.3010 A HIGH STREET
-0.3010 A LAW OF
-0.3010 A LITTLE DIFFERENT
-0.3010 A MEMORIAL TO
-0.3010 A NATION’S PATRON
-0.3010 A NOT-QUITE-EXTINCT VOLCANO.
-0.3010 A PACK OF
-0.3010 A SELECT FEW
-0.3010 A SELF MADE
-0.3010 A TINY TAPPING
-0.3010 A VERY DIFFERENT
-0.3010 A VOLCANO THAT
-0.6021 A VOLCANO. A
-0.6021 A VOLCANO. SO
-0.3010 A WEE CHECK
-0.3010 ABOUT TALES OF
-0.3010 AGAIN - ANOTHER
-0.3010 AGAIN AND AGAIN
-0.3010 AGAIN TO PEOPLE
-0.3010 ALIVE. TAP TAP
-0.3010 ALL MANOR OF
-0.3010 ALL OVER THE
-0.3010 ALL WILD, HUGE
-0.3010 ALONG THE FIRTH.
-0.3010 ALSO IN REAL
-0.3010 ALSO THE WAY
-0.3010 ALTOGETHER. IN DUNDEE
-0.3010 AN ENTIRE SPECIES
-0.3010 AN OVAL SHAPED
-0.3010 AND AGAIN TO
-0.3010 AND AROUND THE
-0.3010 AND AS TINY
-0.3010 AND BE STROKED
-0.3010 AND DICED AND
-0.3010 AND EVERY NIGHT.
-0.3010 AND GRANDADS WILL
-0.3010 AND LOVED NOTHING
-0.3010 AND PERHAPS DIM
-0.3010 AND REMEMBER A
-0.3010 AND SLAYED ITS
-0.3010 AND SOME CHICKEN
-0.3010 AND TERRIFYING. SOME
-0.3010 AND UNTRUE. THEY
-0.3010 AND WONDER. </s>
-0.3010 AND YES OF
-0.3010 ANOTHER STORY ABOUT
-0.3010 APRIL IS NOT
-0.3010 ARE A LITTLE
-0.3010 ARE NO FIRE
-0.3010 ARE TOLD AGAIN
-0.3010 AROUND THE TOWERING
-0.3010 AS THE VOLCANOES
-0.3010 AS TINY GREEN
-0.3010 AS YOU ROLL
-0.3010 AT ALL. </s>
-0.3010 ATROCITIES. IT SHOULD
-0.3010 AUNTS, UNCLES, GRANS,
-0.3010 BACON, A PACK
-0.3010 BARBARIC BUTCHER. HIS
-0.6021 BE A CELEBRATION
-0.6021 BE A MEMORIAL
-0.3010 BE STROKED UNDER
-0.3010 BEASTS ROAMING THE
-0.3010 BEAT OF SOMETHING
-0.3010 BED EARLY AND
-0.3010 BEDROOM WINDOW OR
-0.3010 BEHIND THE SCHOOL
-0.3010 BLADE OF GEORGE’S
-0.3010 BLOOD FLOWED FAST
-0.3010 BLOOD SUCKING, FOREST
-0.3010 BLUE BLADE OF
-0.3010 BLUE. THE RED
-0.3010 BONE-CRUNCHING, SPELL CASTING,
-0.3010 BONES OF THE
-0.3010 BORN. DRAGON EGGS
-0.3010 BREAK OUT OVER
-0.3010 BREAK THEM FREE.
-0.3010 BREATH FIRE. WOW
-0.3010 BREATHING BEASTS ROAMING
-0.3010 BRIDGE GRUMPING, LACK
-0.3010 BUNYIPS. GOBLINS. DRAGONS.
-0.3010 BUT ALSO IN
-0.3010 BUT DID YOU
-0.3010 BUT THEY WEREN’T
-0.3010 BUTCHER. HIS GLEAMING
-0.3010 BY SAINT GEORGE
-0.3010 CAN ONLY GET
-0.3010 CASTING, BLOOD SUCKING,
-0.3010 CEILING. HERE WE
-0.3010 CELEBRATING ST GEORGE’S
-0.3010 CELEBRATION IT IS
-0.3010 CELEBRATION OF A
-0.3010 CHANGE FROM SOMETHING
-0.3010 CHAT. IT’S TIME
-0.3010 CHECK ON REALITY.
-0.3010 CHICKEN WINGS. THE
-0.3010 CHILD IN DUNDEE.
-0.3010 CHILDREN'S STORIES. </s>
-0.3010 CHILL THE BONES
-0.3010 CHIN. SO HOW
-0.3010 CITY. IT’S THERE
-0.3010 COLD BLUE BLADE
-0.3010 COURSE LEFT THIS
-0.3010 COURSE SOME DID
-0.3010 CRACKING HEAT TO
-0.3010 CREATURES FADED INTO
-0.3010 CREATURES OF THE
-0.3010 CREATURES THAT WE
-0.3010 CREATURES, MAGIC AND
-0.3010 CURL UP IN
-0.3010 CURTAINS SHUT, TURN
-0.3010 CYCLOPS. FAIRIES. ELVES.
-0.3010 DAY IS MAKING
-0.6021 DAY OF CELEBRATION
-0.6021 DAY OF HORROR.
-0.3010 DAY. THE PEOPLE
-0.3010 DEPTH PERCEIVING CREATURES
-0.3010 DETAIL. HEY EXIST
-0.3010 DICED AND SLAYED
-0.3010 DID OF BREATH
-0.3010 DID THE DRAGONS.
-0.3010 DID WE GET
-0.3010 DID YOU KNOW
-0.3010 DIE, SO DID
-0.3010 DIFFERENT EVENT ALTOGETHER.
-0.3010 DIFFERENT IN ONE
-0.3010 DIM THE LIGHTS.
-0.3010 DISCOVERED? BUT THEY
-0.3010 DISPATCHED BY SAINT
-0.3010 DO YOU THINK
-0.3010 DOESN’T LOOK FOSSILISED
-0.3010 DON’T EXIST. THESE
-0.3010 DOZEN SLICES OF
-0.3010 DRAGON BLOOD FLOWED
-0.3010 DRAGON EGGS NEED
-0.3010 DRAGONS ARE A
-0.3010 DRAGONS HAVE OF
-0.3010 DRAGONS. ALL MANOR
-0.3010 DRAGONS. UNTIL THERE
-0.6021 DUNDEE LAW SITS
-0.6021 DUNDEE LAW WILL
-0.3010 DUNDEE LIVING IN
-0.3010 DUNDEE THANKFULLY YOU
-0.3010 DUNDEE THE PARENTS,
-0.3010 DUNDEE. THE LAW
-0.3010 DWELLING, UNDER BRIDGE
-0.3010 EARLY AND REMEMBER
-0.3010 EARTH CRACKING HEAT
-0.3010 EGG IN THE
-0.3010 EGG TO SOMETHING
-0.3010 EGG. A FOSSIL
-0.3010 EGGS NEED EARTH
-0.3010 ELVES. LEPRECHAUNS. MERMAIDS.
-0.3010 ENTIRE SPECIES RATHER
-0.3010 EVENT ALTOGETHER. IN
-0.3010 EVERY MORNING AND
-0.3010 EVERY NIGHT. IF
-0.3010 EXIST NOT JUST
-0.3010 EXIST. THESE STORIES
-0.3010 EYES TO THE
-0.3010 FACT KNOWN ONLY
-0.3010 FACT THAT WOULD
-0.3010 FADED INTO CHILDREN'S
-0.3010 FAIRIES. ELVES. LEPRECHAUNS.
-0.3010 FANTASTICAL CREATURES, MAGIC
-0.3010 FAST ALONG THE
-0.3010 FAULT OF ONE
-0.3010 FEW SCIENTISTS IN
-0.3010 FIND IN STORIES.
-0.3010 FIRE AND BE
-0.3010 FIRE BREATHING BEASTS
-0.3010 FIRE WAS DISCOVERED?
-0.3010 FIRE. WOW DO
-0.3010 FIRTH RUNS BLUE.
-0.3010 FLOWED FAST ALONG
-0.3010 FOR A WEE
-0.3010 FOREST DWELLING, UNDER
-0.3010 FORM. THERE ARE
-0.3010 FOSSIL OF A
-0.3010 FOSSIL THAT ON
-0.3010 FOSSILISED AT ALL.
-0.3010 FOSSILISED EGG TO
-0.3010 FREE. THE KIND
-0.3010 FRIENDLY AND LOVED
-0.3010 FROM A VOLCANO.
-0.3010 FROM SOMETHING THAT
-0.3010 FROM THEN TO
-0.3010 FRONT OF A
-0.3010 GATES, THERE IT
-0.3010 GEORGE WAS NO
-0.3010 GEORGE WERE THE
-0.3010 GEORGE’S DAY. THE
-0.3010 GEORGE’S SWORD THAT
-0.6021 GET FROM A
-0.6021 GET FROM THEN
-0.3010 GHOSTS. VAMPIRES. WEREWOLVES.
-0.3010 GIANT EGG. A
-0.3010 GIANTS. WITCHES. WIZARDS.
-0.3010 GLEAMING STEEL SLICED
-0.3010 GO AGAIN -
-0.3010 GOBLINS. DRAGONS. ALL
-0.3010 GONE. THE MEMORIES
-0.3010 GRANDADS WILL PULL
-0.3010 GRANS, NANS AND
-0.3010 GREEN LINES START
-0.3010 GRUMPING, LACK OF
-0.3010 HAD A CHAT.
-0.3010 HAS IN ITS
-0.3010 HAVE OF COURSE
-0.3010 HE WAS A
-0.3010 HEAT THAT YOU
-0.3010 HEAT TO BREAK
-0.3010 HERE WE GO
-0.3010 HEY EXIST NOT
-0.3010 HIGH STREET MEAT
-0.3010 HIS GLEAMING STEEL
-0.3010 HOMES, PUT THE
-0.3010 HORROR. IT SHOULD
-0.3010 HOW DID WE
-0.3010 HOWLING, BONE-CRUNCHING, SPELL
-0.3010 HUGE AND TERRIFYING.
-0.3010 HUSHED TONES OF
-0.3010 I THINK IT’S
-0.3010 IF YOU LOOK
-0.3010 IMAGINARY, AND UNTRUE.
-0.3010 IN AND AROUND
-0.6021 IN DUNDEE THANKFULLY
-0.6021 IN DUNDEE THE
-0.3010 IN DUNDEE. THE
-0.3010 IN FRONT OF
-0.3010 IN HUSHED TONES
-0.3010 IN ITS MIDDLE
-0.3010 IN ONE REMARKABLY
-0.3010 IN REAL LIFE.
-0.3010 IN STORIES BUT
-0.3010 IN STORIES. THE
-0.6021 IN THE MIDDLE
-0.6021 IN THE UNIVERSITY
-0.3010 IN THEIR LIVING
-0.3010 INTO CHILDREN'S STORIES.
-0.3010 IRREGULAR BEAT OF
-0.9031 IS A DAY
-0.9031 IS A FACT
-0.9031 IS A LAW
-0.9031 IS A VOLCANO.
-0.3010 IS MAKING A
-0.3010 IS NOT A
-0.3010 IS STARTING TO
-0.3010 IS. BUT DID
-0.3010 IT IS A
-0.3010 IT IS. BUT
-0.6021 IT SHOULD BE
-0.6021 IT SHOULD NOT
-0.3010 IT STARTS TO
-0.6021 IT WAS ALSO
-0.6021 IT WAS THE
-0.3010 IT WASN’T JUST
-0.3010 IT, IT STARTS
-0.3010 ITS MIDDLE AN
-0.3010 ITS WAY THROUGH
-0.3010 ITSELF. A FACT
-0.3010 IT’S THERE EVERY
-0.6021 IT’S TIME FOR
-0.6021 IT’S TIME WE
-0.3010 JUST IN STORIES
-0.3010 JUST LIKE YOU.
-0.3010 JUST THE THE
-0.3010 KIDS TO BED
-0.3010 KIND OF RED-HOT
-0.3010 KNOW THAT THIS
-0.3010 KNOWN ONLY TO
-0.3010 LACK OF DEPTH
-0.3010 LAST OF THEIR
-0.6021 LAW IS A
-0.6021 LAW IS STARTING
-0.3010 LAW OF NATURE
-0.3010 LAW SITS SILENTLY
-0.3010 LAW WILL QUIETLY
-0.3010 LEFT THIS WORLD
-0.3010 LEPRECHAUNS. MERMAIDS. GHOSTS.
-0.3010 LIGHTS. THEY WILL
-0.6021 LIKE A FOSSILISED
-0.6021 LIKE A HIGH
-0.3010 LIKE YOU. </s>
-0.3010 LINES START TO
-0.3010 LITTLE DIFFERENT IN
-0.3010 LIVING FORM. THERE
-0.3010 LIVING IN AND
-0.3010 LONG GONE. THE
-0.3010 LOOK FOSSILISED AT
-0.3010 LOOK OUT OF
-0.3010 LOOKS LIKE A
-0.3010 LOVED NOTHING MORE
-0.3010 MADE FIRE AND
-0.3010 MAGIC AND WONDER.
-0.3010 MAKING A TINY
-0.3010 MAN. SAINT GEORGE.
-0.3010 MANOR OF MOON
-0.3010 MEAT SELLER MIGHT
-0.3010 MEMORIAL TO PAST
-0.3010 MEMORIES OF THESE
-0.3010 MERMAIDS. GHOSTS. VAMPIRES.
-0.3010 MIDDLE AN OVAL
-0.3010 MIDDLE OF THE
-0.3010 MIGHT RUN OFF
-0.3010 MOON HOWLING, BONE-CRUNCHING,
-0.3010 MORE THAN TO
-0.3010 MORE. THE ONES
-0.3010 MORNING AND EVERY
-0.3010 NANS AND GRANDADS
-0.3010 NATION’S PATRON SAINT.
-0.3010 NATURE TO ITSELF.
-0.3010 NEED EARTH CRACKING
-0.3010 NIGHT THE TAY
-0.3010 NIGHT. IF YOU
-0.3010 NO FIRE BREATHING
-0.3010 NO MORE. THE
-0.3010 NO SAINT. HE
-0.3010 NOT A DAY
-0.3010 NOT BE A
-0.3010 NOT JUST IN
-0.3010 NOT SEE PEOPLE
-0.3010 NOT-QUITE-EXTINCT VOLCANO. A
-0.3010 NOTHING MORE THAN
-0.3010 NOW THE FIRTH
-0.3010 NOW. IT WAS
-0.7782 OF A GIANT
-0.7782 OF A NATION’S
-0.7782 OF A SELF
-0.3010 OF APRIL IS
-0.3010 OF BACON, A
-0.3010 OF BREATH FIRE.
-0.3010 OF CELEBRATION IT
-0.6021 OF COURSE LEFT
-0.6021 OF COURSE SOME
-0.3010 OF DEPTH PERCEIVING
-0.6021 OF DUNDEE LAW
-0.6021 OF DUNDEE LIVING
-0.3010 OF FANTASTICAL CREATURES,
-0.3010 OF GEORGE’S SWORD
-0.3010 OF HORROR. IT
-0.3010 OF MOON HOWLING,
-0.3010 OF NATURE TO
-0.3010 OF ONE MAN.
-0.3010 OF RED-HOT HEAT
-0.3010 OF SAUSAGES AND
-0.3010 OF SCOTLAND STARTED
-0.3010 OF SOMETHING ALIVE.
-0.9031 OF THE LAW
-0.9031 OF THE NIGHT
-0.9031 OF THE STORIES.
-0.9031 OF THE TOUGHEST
-0.3010 OF THEIR KIND.
-0.3010 OF THESE CREATURES
-0.3010 OF YOUR BEDROOM
-0.3010 OFF A DOZEN
-0.3010 OFF THE TV,
-0.3010 ON REALITY. </s>
-0.3010 ON THIS WARM
-0.3010 ONE MAN. SAINT
-0.3010 ONE REMARKABLY SMALL
-0.3010 ONES THAT DISPATCHED
-0.3010 ONLY GET FROM
-0.3010 ONLY TO A
-0.3010 OR BEHIND THE
-0.3010 OR SO WE
-0.3010 OUT OF YOUR
-0.3010 OUT OVER IT,
-0.3010 OUT. IT WAS
-0.3010 OVAL SHAPED FOSSIL
-0.3010 OVER IT, IT
-0.6021 OVER THE CITY.
-0.6021 OVER THE WORLD.
-0.3010 PACK OF SAUSAGES
-0.3010 PARENTS, AUNTS, UNCLES,
-0.3010 PAST ATROCITIES. IT
-0.3010 PATRON SAINT. </s>
-0.3010 PEOPLE ALL OVER
-0.3010 PEOPLE CELEBRATING ST
-0.3010 PEOPLE JUST LIKE
-0.3010 PEOPLE OF DUNDEE
-0.3010 PERCEIVING CREATURES THAT
-0.3010 PERHAPS DIM THE
-0.3010 PRESENCE OF DUNDEE
-0.3010 PULL THE CURTAINS
-0.3010 PUT THE KIDS
-0.3010 QUIETLY RETURN TO
-0.3010 RATHER LIKE A
-0.3010 REAL LIFE. </s>
-0.3010 RED STAINS LONG
-0.3010 RED-HOT HEAT THAT
-0.3010 RED. WHEN THE
-0.3010 REMARKABLY SMALL DETAIL.
-0.3010 REMEMBER A VERY
-0.3010 RETURN TO THEIR
-0.3010 ROAMING THE VILLAGES.
-0.3010 ROLL YOUR EYES
-0.3010 RUN OFF A
-0.3010 RUNS BLUE. THE
-0.6021 SAINT GEORGE WAS
-0.6021 SAINT GEORGE WERE
-0.3010 SAINT GEORGE. </s>
-0.3010 SAINT. HE WAS
-0.3010 SAUSAGES AND SOME
-0.3010 SAY AS YOU
-0.3010 SCHOOL GATES, THERE
-0.3010 SCIENTISTS IN THE
-0.3010 SCOTLAND STARTED TO
-0.3010 SEE PEOPLE CELEBRATING
-0.3010 SELECT FEW SCIENTISTS
-0.3010 SELF MADE FIRE
-0.3010 SELLER MIGHT RUN
-0.3010 SHAPED FOSSIL OF
-0.3010 SHOULD BE A
-0.3010 SHOULD NOT BE
-0.3010 SHUT, TURN OFF
-0.3010 SILENTLY WATCHING OVER
-0.3010 SITS SILENTLY WATCHING
-0.3010 SLAYED ITS WAY
-0.3010 SLICED AND DICED
-0.3010 SLICES OF BACON,
-0.3010 SMALL DETAIL. HEY
-0.3010 SMALL, FRIENDLY AND
-0.3010 SO AS THE
-0.3010 SO DID THE
-0.3010 SO HOW DID
-0.3010 SO WE THOUGHT.
-0.3010 SOME CHICKEN WINGS.
-0.3010 SOME DID OF
-0.3010 SOME WERE SMALL,
-0.3010 SOMETHING ALIVE. TAP
-0.6021 SOMETHING THAT DOESN’T
-0.6021 SOMETHING THAT LOOKS
-0.3010 SOUND. TAP TAP
-0.3010 SPECIES RATHER LIKE
-0.3010 SPELL CASTING, BLOOD
-0.3010 SPRING DAY IS
-0.3010 ST GEORGE’S DAY.
-0.3010 STAINS LONG GONE.
-0.3010 START TO BREAK
-0.3010 STARTED TO DIE,
-0.3010 STARTING TO HATCH….
-0.3010 STARTS TO CHANGE
-0.3010 STEEL SLICED AND
-0.3010 STORIES ARE TOLD
-0.3010 STORIES BUT ALSO
-0.3010 STORIES. IMAGINARY, AND
-0.3010 STORIES. THE CREATURES
-0.3010 STORY ABOUT TALES
-0.3010 STREET MEAT SELLER
-0.3010 STROKED UNDER THE
-0.3010 SUCKING, FOREST DWELLING,
-0.3010 SWORD THAT WIPED
-0.3010 TALES OF FANTASTICAL
-0.3010 TALK IN HUSHED
-0.6021 TAP TAP TAP
-0.6021 TAP TAP TAP.
-0.6021 TAP TAP. AND
-0.6021 TAP TAP. THE
-0.3010 TAP. AND AS
-0.3010 TAP. THE IRREGULAR
-0.3010 TAPPING SOUND. TAP
-0.3010 TAY TURNED RED.
-0.3010 TERRIFYING. SOME WERE
-0.3010 THAN TO CURL
-0.3010 THANKFULLY YOU WILL
-0.3010 THAT DISPATCHED BY
-0.3010 THAT DOESN’T LOOK
-0.3010 THAT HAS IN
-0.3010 THAT LOOKS LIKE
-0.3010 THAT ON THIS
-0.3010 THAT THEY WERE
-0.3010 THAT THIS ‘LAW’
-0.3010 THAT WE FIND
-0.3010 THAT WIPED THEM
-0.3010 THAT WOULD CHILL
-0.3010 THAT YOU CAN
-0.3010 THE 23RD OF
-0.3010 THE BONES OF
-0.3010 THE CEILING. HERE
-0.3010 THE CHIN. SO
-0.3010 THE CITY. IT’S
-0.3010 THE COLD BLUE
-0.3010 THE CREATURES OF
-0.3010 THE CURTAINS SHUT,
-0.3010 THE DRAGON BLOOD
-0.3010 THE DRAGONS. UNTIL
-0.3010 THE EGG IN
-0.3010 THE FAULT OF
-0.3010 THE FIRTH RUNS
-0.3010 THE FIRTH. </s>
-0.3010 THE IRREGULAR BEAT
-0.3010 THE KIDS TO
-0.3010 THE KIND OF
-0.3010 THE LAST OF
-0.3010 THE LAW IS
-0.3010 THE LIGHTS. THEY
-0.3010 THE MEMORIES OF
-0.3010 THE MIDDLE OF
-0.3010 THE NIGHT THE
-0.3010 THE ONES THAT
-0.3010 THE PARENTS, AUNTS,
-0.3010 THE PEOPLE OF
-0.3010 THE RED STAINS
-0.3010 THE SCHOOL GATES,
-0.3010 THE STORIES. IMAGINARY,
-0.3010 THE TAY TURNED
-0.3010 THE THE COLD
-0.3010 THE TOUGHEST CHILD
-0.3010 THE TOWERING PRESENCE
-0.3010 THE TV, AND
-0.3010 THE UNIVERSITY IS
-0.3010 THE VILLAGES. AND
-0.3010 THE VOLCANOES OF
-0.3010 THE WAY THAT
-0.3010 THE WORLD. TO
-0.3010 THEIR HOMES, PUT
-0.3010 THEIR KIND. </s>
-0.3010 THEIR LIVING FORM.
-0.3010 THEM FREE. THE
-0.3010 THEM OUT. IT
-0.3010 THEN TO NOW.
-0.3010 THERE ARE NO
-0.3010 THERE EVERY MORNING
-0.3010 THERE IT IS.
-0.3010 THERE WERE NO
-0.3010 THESE CREATURES FADED
-0.3010 THESE STORIES ARE
-0.3010 THEY DON’T EXIST.
-0.3010 THEY WERE BORN.
-0.3010 THEY WEREN’T ALL
-0.3010 THEY WILL TALK
-0.3010 THINK FIRE WAS
-0.3010 THINK IT’S TIME
-0.3010 THIS WARM SPRING
-0.3010 THIS WORLD IN
-0.3010 THIS ‘LAW’ IS
-0.3010 THROUGH AN ENTIRE
-0.3010 TIME FOR A
-0.3010 TIME WE HAD
-0.3010 TINY GREEN LINES
-0.3010 TINY TAPPING SOUND.
-0.3010 TO A SELECT
-0.3010 TO BED EARLY
-0.6021 TO BREAK OUT
-0.6021 TO BREAK THEM
-0.3010 TO CHANGE FROM
-0.3010 TO CURL UP
-0.3010 TO DIE, SO
-0.3010 TO HATCH…. </s>
-0.3010 TO ITSELF. A
-0.3010 TO NOW. IT
-0.3010 TO PAST ATROCITIES.
-0.6021 TO PEOPLE ALL
-0.6021 TO PEOPLE JUST
-0.3010 TO SOMETHING THAT
-0.3010 TO THE CEILING.
-0.3010 TO THEIR HOMES,
-0.3010 TOLD AGAIN AND
-0.3010 TONES OF THE
-0.3010 TOUGHEST CHILD IN
-0.3010 TOWERING PRESENCE OF
-0.3010 TURN OFF THE
-0.3010 TURNED RED. WHEN
-0.3010 TV, AND PERHAPS
-0.3010 UNCLES, GRANS, NANS
-0.3010 UNDER BRIDGE GRUMPING,
-0.3010 UNDER THE CHIN.
-0.3010 UNICORNS. GIANTS. WITCHES.
-0.3010 UNIVERSITY IS A
-0.3010 UNTIL THERE WERE
-0.3010 UNTRUE. THEY DON’T
-0.3010 UP IN FRONT
-0.3010 VAMPIRES. WEREWOLVES. BUNYIPS.
-0.3010 VERY DIFFERENT EVENT
-0.3010 VILLAGES. AND YES
-0.3010 VOLCANO THAT HAS
-0.6021 VOLCANO. A NOT-QUITE-EXTINCT
-0.6021 VOLCANO. A VOLCANO
-0.3010 VOLCANO. SO AS
-0.3010 VOLCANOES OF SCOTLAND
-0.3010 WARM SPRING DAY
-0.3010 WAS A BARBARIC
-0.3010 WAS ALSO THE
-0.3010 WAS DISCOVERED? BUT
-0.3010 WAS NO SAINT.
-0.3010 WAS THE FAULT
-0.3010 WASN’T JUST THE
-0.3010 WATCHING OVER THE
-0.3010 WAY THAT THEY
-0.3010 WAY THROUGH AN
-0.3010 WE FIND IN
-0.3010 WE GET FROM
-0.3010 WE GO AGAIN
-0.3010 WE HAD A
-0.3010 WE THOUGHT. </s>
-0.3010 WEE CHECK ON
-0.3010 WERE BORN. DRAGON
-0.3010 WERE NO MORE.
-0.3010 WERE SMALL, FRIENDLY
-0.3010 WERE THE LAST
-0.3010 WEREN’T ALL WILD,
-0.3010 WEREWOLVES. BUNYIPS. GOBLINS.
-0.3010 WHEN THE DRAGON
-0.3010 WILD, HUGE AND
-0.3010 WILL NOT SEE
-0.3010 WILL PULL THE
-0.3010 WILL QUIETLY RETURN
-0.3010 WILL TALK IN
-0.3010 WINDOW OR BEHIND
-0.3010 WINGS. THE 23RD
-0.3010 WIPED THEM OUT.
-0.3010 WITCHES. WIZARDS. CYCLOPS.
-0.3010 WIZARDS. CYCLOPS. FAIRIES.
-0.3010 WORLD IN THEIR
-0.3010 WORLD. TO PEOPLE
-0.3010 WOULD CHILL THE
-0.3010 WOW DO YOU
-0.3010 YES OF COURSE
-0.3010 YET IT WASN’T
-0.3010 YOU CAN ONLY
-0.3010 YOU KNOW THAT
-0.3010 YOU LOOK OUT
-0.3010 YOU ROLL YOUR
-0.3010 YOU SAY AS
-0.3010 YOU THINK FIRE
-0.3010 YOU WILL NOT
-0.3010 YOUR BEDROOM WINDOW
-0.3010 YOUR EYES TO
-0.3010 ‘LAW’ IS A
-0.3010 “NONSENSE” YOU SAY

\end\
